digraph Tree {
node [shape=box, style="filled, rounded", color="black", fontname="helvetica"] ;
edge [fontname="helvetica"] ;
0 [label="age <= 24.5\ngini = 0.745\nsamples = 50000\nvalue = [13265.0, 16054.0, 3715.0, 3723.0, 13243.0]\nclass = Classical", fillcolor="#f5fdf0"] ;
1 [label="age <= 19.5\ngini = 0.5\nsamples = 7438\nvalue = [0.0, 0.0, 3715.0, 3723.0, 0.0]\nclass = HipHop", fillcolor="#ffffff"] ;
0 -> 1 [labeldistance=2.5, labelangle=45, headlabel="True"] ;
2 [label="gender <= 0.5\ngini = 0.5\nsamples = 2146\nvalue = [0, 0, 1043, 1103, 0]\nclass = HipHop", fillcolor="#f4f4fe"] ;
1 -> 2 ;
3 [label="age <= 18.5\ngini = 0.5\nsamples = 1115\nvalue = [0, 0, 555, 560, 0]\nclass = HipHop", fillcolor="#fdfdff"] ;
2 -> 3 ;
4 [label="gini = 0.5\nsamples = 559\nvalue = [0, 0, 283, 276, 0]\nclass = Dance", fillcolor="#fafefe"] ;
3 -> 4 ;
5 [label="gini = 0.5\nsamples = 556\nvalue = [0, 0, 272, 284, 0]\nclass = HipHop", fillcolor="#f7f7fe"] ;
3 -> 5 ;
6 [label="age <= 18.5\ngini = 0.499\nsamples = 1031\nvalue = [0, 0, 488, 543, 0]\nclass = HipHop", fillcolor="#ebebfc"] ;
2 -> 6 ;
7 [label="gini = 0.496\nsamples = 522\nvalue = [0, 0, 238, 284, 0]\nclass = HipHop", fillcolor="#dfdffb"] ;
6 -> 7 ;
8 [label="gini = 0.5\nsamples = 509\nvalue = [0, 0, 250, 259, 0]\nclass = HipHop", fillcolor="#f8f8fe"] ;
6 -> 8 ;
9 [label="age <= 23.5\ngini = 0.5\nsamples = 5292\nvalue = [0.0, 0.0, 2672.0, 2620.0, 0.0]\nclass = Dance", fillcolor="#fbfefe"] ;
1 -> 9 ;
10 [label="gender <= 0.5\ngini = 0.5\nsamples = 4265\nvalue = [0, 0, 2174, 2091, 0]\nclass = Dance", fillcolor="#f7fefd"] ;
9 -> 10 ;
11 [label="age <= 21.5\ngini = 0.5\nsamples = 2166\nvalue = [0, 0, 1085, 1081, 0]\nclass = Dance", fillcolor="#feffff"] ;
10 -> 11 ;
12 [label="age <= 20.5\ngini = 0.5\nsamples = 1069\nvalue = [0.0, 0.0, 523.0, 546.0, 0.0]\nclass = HipHop", fillcolor="#f7f7fe"] ;
11 -> 12 ;
13 [label="gini = 0.5\nsamples = 553\nvalue = [0, 0, 273, 280, 0]\nclass = HipHop", fillcolor="#fafafe"] ;
12 -> 13 ;
14 [label="gini = 0.5\nsamples = 516\nvalue = [0, 0, 250, 266, 0]\nclass = HipHop", fillcolor="#f3f3fd"] ;
12 -> 14 ;
15 [label="age <= 22.5\ngini = 0.5\nsamples = 1097\nvalue = [0, 0, 562, 535, 0]\nclass = Dance", fillcolor="#f5fefc"] ;
11 -> 15 ;
16 [label="gini = 0.499\nsamples = 551\nvalue = [0, 0, 290, 261, 0]\nclass = Dance", fillcolor="#ebfcf9"] ;
15 -> 16 ;
17 [label="gini = 0.5\nsamples = 546\nvalue = [0, 0, 272, 274, 0]\nclass = HipHop", fillcolor="#fefeff"] ;
15 -> 17 ;
18 [label="age <= 20.5\ngini = 0.499\nsamples = 2099\nvalue = [0.0, 0.0, 1089.0, 1010.0, 0.0]\nclass = Dance", fillcolor="#f1fdfb"] ;
10 -> 18 ;
19 [label="gini = 0.5\nsamples = 530\nvalue = [0, 0, 268, 262, 0]\nclass = Dance", fillcolor="#fbfefe"] ;
18 -> 19 ;
20 [label="age <= 21.5\ngini = 0.499\nsamples = 1569\nvalue = [0, 0, 821, 748, 0]\nclass = Dance", fillcolor="#edfdfa"] ;
18 -> 20 ;
21 [label="gini = 0.498\nsamples = 548\nvalue = [0, 0, 292, 256, 0]\nclass = Dance", fillcolor="#e7fcf8"] ;
20 -> 21 ;
22 [label="age <= 22.5\ngini = 0.499\nsamples = 1021\nvalue = [0, 0, 529, 492, 0]\nclass = Dance", fillcolor="#f1fdfb"] ;
20 -> 22 ;
23 [label="gini = 0.5\nsamples = 479\nvalue = [0, 0, 247, 232, 0]\nclass = Dance", fillcolor="#f3fdfb"] ;
22 -> 23 ;
24 [label="gini = 0.499\nsamples = 542\nvalue = [0.0, 0.0, 282.0, 260.0, 0.0]\nclass = Dance", fillcolor="#f0fdfa"] ;
22 -> 24 ;
25 [label="gender <= 0.5\ngini = 0.5\nsamples = 1027\nvalue = [0, 0, 498, 529, 0]\nclass = HipHop", fillcolor="#f4f3fd"] ;
9 -> 25 ;
26 [label="gini = 0.5\nsamples = 509\nvalue = [0, 0, 250, 259, 0]\nclass = HipHop", fillcolor="#f8f8fe"] ;
25 -> 26 ;
27 [label="gini = 0.499\nsamples = 518\nvalue = [0, 0, 248, 270, 0]\nclass = HipHop", fillcolor="#efeffd"] ;
25 -> 27 ;
28 [label="age <= 34.5\ngini = 0.664\nsamples = 42562\nvalue = [13265.0, 16054.0, 0.0, 0.0, 13243.0]\nclass = Classical", fillcolor="#f2fdec"] ;
0 -> 28 [labeldistance=2.5, labelangle=-45, headlabel="False"] ;
29 [label="age <= 32.5\ngini = 0.5\nsamples = 10680\nvalue = [5367, 0, 0, 0, 5313]\nclass = Acoustic", fillcolor="#fffefd"] ;
28 -> 29 ;
30 [label="age <= 31.5\ngini = 0.5\nsamples = 8499\nvalue = [4310, 0, 0, 0, 4189]\nclass = Acoustic", fillcolor="#fefbf9"] ;
29 -> 30 ;
31 [label="age <= 27.5\ngini = 0.5\nsamples = 7416\nvalue = [3727, 0, 0, 0, 3689]\nclass = Acoustic", fillcolor="#fffefd"] ;
30 -> 31 ;
32 [label="gender <= 0.5\ngini = 0.5\nsamples = 3133\nvalue = [1561, 0, 0, 0, 1572]\nclass = Jazz", fillcolor="#fffeff"] ;
31 -> 32 ;
33 [label="age <= 26.5\ngini = 0.5\nsamples = 1549\nvalue = [787, 0, 0, 0, 762]\nclass = Acoustic", fillcolor="#fefbf9"] ;
32 -> 33 ;
34 [label="age <= 25.5\ngini = 0.5\nsamples = 1043\nvalue = [525, 0, 0, 0, 518]\nclass = Acoustic", fillcolor="#fffdfc"] ;
33 -> 34 ;
35 [label="gini = 0.5\nsamples = 559\nvalue = [284, 0, 0, 0, 275]\nclass = Acoustic", fillcolor="#fefbf9"] ;
34 -> 35 ;
36 [label="gini = 0.5\nsamples = 484\nvalue = [241.0, 0.0, 0.0, 0.0, 243.0]\nclass = Jazz", fillcolor="#fffdfe"] ;
34 -> 36 ;
37 [label="gini = 0.499\nsamples = 506\nvalue = [262, 0, 0, 0, 244]\nclass = Acoustic", fillcolor="#fdf6f1"] ;
33 -> 37 ;
38 [label="age <= 25.5\ngini = 0.5\nsamples = 1584\nvalue = [774, 0, 0, 0, 810]\nclass = Jazz", fillcolor="#fef6fc"] ;
32 -> 38 ;
39 [label="gini = 0.5\nsamples = 557\nvalue = [284, 0, 0, 0, 273]\nclass = Acoustic", fillcolor="#fefaf7"] ;
38 -> 39 ;
40 [label="age <= 26.5\ngini = 0.499\nsamples = 1027\nvalue = [490, 0, 0, 0, 537]\nclass = Jazz", fillcolor="#fdeef9"] ;
38 -> 40 ;
41 [label="gini = 0.499\nsamples = 539\nvalue = [255, 0, 0, 0, 284]\nclass = Jazz", fillcolor="#fcebf9"] ;
40 -> 41 ;
42 [label="gini = 0.499\nsamples = 488\nvalue = [235, 0, 0, 0, 253]\nclass = Jazz", fillcolor="#fdf1fb"] ;
40 -> 42 ;
43 [label="age <= 29.5\ngini = 0.5\nsamples = 4283\nvalue = [2166, 0, 0, 0, 2117]\nclass = Acoustic", fillcolor="#fefcfb"] ;
31 -> 43 ;
44 [label="age <= 28.5\ngini = 0.5\nsamples = 2118\nvalue = [1083, 0, 0, 0, 1035]\nclass = Acoustic", fillcolor="#fef9f6"] ;
43 -> 44 ;
45 [label="gender <= 0.5\ngini = 0.5\nsamples = 1057\nvalue = [536, 0, 0, 0, 521]\nclass = Acoustic", fillcolor="#fefbf9"] ;
44 -> 45 ;
46 [label="gini = 0.5\nsamples = 544\nvalue = [268, 0, 0, 0, 276]\nclass = Jazz", fillcolor="#fef9fd"] ;
45 -> 46 ;
47 [label="gini = 0.499\nsamples = 513\nvalue = [268, 0, 0, 0, 245]\nclass = Acoustic", fillcolor="#fdf4ee"] ;
45 -> 47 ;
48 [label="gender <= 0.5\ngini = 0.5\nsamples = 1061\nvalue = [547, 0, 0, 0, 514]\nclass = Acoustic", fillcolor="#fdf7f3"] ;
44 -> 48 ;
49 [label="gini = 0.499\nsamples = 548\nvalue = [288, 0, 0, 0, 260]\nclass = Acoustic", fillcolor="#fcf3ec"] ;
48 -> 49 ;
50 [label="gini = 0.5\nsamples = 513\nvalue = [259, 0, 0, 0, 254]\nclass = Acoustic", fillcolor="#fefdfb"] ;
48 -> 50 ;
51 [label="gender <= 0.5\ngini = 0.5\nsamples = 2165\nvalue = [1083, 0, 0, 0, 1082]\nclass = Acoustic", fillcolor="#ffffff"] ;
43 -> 51 ;
52 [label="age <= 30.5\ngini = 0.5\nsamples = 1121\nvalue = [556, 0, 0, 0, 565]\nclass = Jazz", fillcolor="#fffcfe"] ;
51 -> 52 ;
53 [label="gini = 0.5\nsamples = 560\nvalue = [278, 0, 0, 0, 282]\nclass = Jazz", fillcolor="#fffcfe"] ;
52 -> 53 ;
54 [label="gini = 0.5\nsamples = 561\nvalue = [278.0, 0.0, 0.0, 0.0, 283.0]\nclass = Jazz", fillcolor="#fffcfe"] ;
52 -> 54 ;
55 [label="age <= 30.5\ngini = 0.5\nsamples = 1044\nvalue = [527, 0, 0, 0, 517]\nclass = Acoustic", fillcolor="#fffdfb"] ;
51 -> 55 ;
56 [label="gini = 0.5\nsamples = 513\nvalue = [254, 0, 0, 0, 259]\nclass = Jazz", fillcolor="#fefbfe"] ;
55 -> 56 ;
57 [label="gini = 0.5\nsamples = 531\nvalue = [273, 0, 0, 0, 258]\nclass = Acoustic", fillcolor="#fef8f4"] ;
55 -> 57 ;
58 [label="gender <= 0.5\ngini = 0.497\nsamples = 1083\nvalue = [583, 0, 0, 0, 500]\nclass = Acoustic", fillcolor="#fbede3"] ;
30 -> 58 ;
59 [label="gini = 0.494\nsamples = 537\nvalue = [297.0, 0.0, 0.0, 0.0, 240.0]\nclass = Acoustic", fillcolor="#fae7d9"] ;
58 -> 59 ;
60 [label="gini = 0.499\nsamples = 546\nvalue = [286, 0, 0, 0, 260]\nclass = Acoustic", fillcolor="#fdf4ed"] ;
58 -> 60 ;
61 [label="age <= 33.5\ngini = 0.5\nsamples = 2181\nvalue = [1057, 0, 0, 0, 1124]\nclass = Jazz", fillcolor="#fdf3fb"] ;
29 -> 61 ;
62 [label="gender <= 0.5\ngini = 0.497\nsamples = 1081\nvalue = [502, 0, 0, 0, 579]\nclass = Jazz", fillcolor="#fce5f7"] ;
61 -> 62 ;
63 [label="gini = 0.494\nsamples = 528\nvalue = [235, 0, 0, 0, 293]\nclass = Jazz", fillcolor="#fad8f3"] ;
62 -> 63 ;
64 [label="gini = 0.499\nsamples = 553\nvalue = [267, 0, 0, 0, 286]\nclass = Jazz", fillcolor="#fdf2fb"] ;
62 -> 64 ;
65 [label="gender <= 0.5\ngini = 0.5\nsamples = 1100\nvalue = [555, 0, 0, 0, 545]\nclass = Acoustic", fillcolor="#fffdfb"] ;
61 -> 65 ;
66 [label="gini = 0.5\nsamples = 553\nvalue = [282, 0, 0, 0, 271]\nclass = Acoustic", fillcolor="#fefaf7"] ;
65 -> 66 ;
67 [label="gini = 0.5\nsamples = 547\nvalue = [273, 0, 0, 0, 274]\nclass = Jazz", fillcolor="#fffeff"] ;
65 -> 67 ;
68 [label="gender <= 0.5\ngini = 0.623\nsamples = 31882\nvalue = [7898, 16054, 0, 0, 7930]\nclass = Classical", fillcolor="#d2f6bc"] ;
28 -> 68 ;
69 [label="age <= 44.5\ngini = 0.5\nsamples = 16017\nvalue = [7898.0, 8119.0, 0.0, 0.0, 0.0]\nclass = Classical", fillcolor="#fbfefa"] ;
68 -> 69 ;
70 [label="age <= 40.5\ngini = 0.5\nsamples = 5287\nvalue = [2566.0, 2721.0, 0.0, 0.0, 0.0]\nclass = Classical", fillcolor="#f7fef4"] ;
69 -> 70 ;
71 [label="age <= 39.5\ngini = 0.5\nsamples = 3146\nvalue = [1547, 1599, 0, 0, 0]\nclass = Classical", fillcolor="#fbfef9"] ;
70 -> 71 ;
72 [label="age <= 35.5\ngini = 0.499\nsamples = 2625\nvalue = [1269, 1356, 0, 0, 0]\nclass = Classical", fillcolor="#f7fdf2"] ;
71 -> 72 ;
73 [label="gini = 0.5\nsamples = 543\nvalue = [273, 270, 0, 0, 0]\nclass = Acoustic", fillcolor="#fffefd"] ;
72 -> 73 ;
74 [label="age <= 36.5\ngini = 0.499\nsamples = 2082\nvalue = [996, 1086, 0, 0, 0]\nclass = Classical", fillcolor="#f4fdef"] ;
72 -> 74 ;
75 [label="gini = 0.497\nsamples = 534\nvalue = [245, 289, 0, 0, 0]\nclass = Classical", fillcolor="#ebfbe1"] ;
74 -> 75 ;
76 [label="age <= 37.5\ngini = 0.5\nsamples = 1548\nvalue = [751.0, 797.0, 0.0, 0.0, 0.0]\nclass = Classical", fillcolor="#f7fdf4"] ;
74 -> 76 ;
77 [label="gini = 0.499\nsamples = 525\nvalue = [251, 274, 0, 0, 0]\nclass = Classical", fillcolor="#f4fdee"] ;
76 -> 77 ;
78 [label="age <= 38.5\ngini = 0.5\nsamples = 1023\nvalue = [500, 523, 0, 0, 0]\nclass = Classical", fillcolor="#f9fef6"] ;
76 -> 78 ;
79 [label="gini = 0.5\nsamples = 514\nvalue = [253, 261, 0, 0, 0]\nclass = Classical", fillcolor="#fbfef9"] ;
78 -> 79 ;
80 [label="gini = 0.5\nsamples = 509\nvalue = [247, 262, 0, 0, 0]\nclass = Classical", fillcolor="#f7fef4"] ;
78 -> 80 ;
81 [label="gini = 0.498\nsamples = 521\nvalue = [278, 243, 0, 0, 0]\nclass = Acoustic", fillcolor="#fcefe6"] ;
71 -> 81 ;
82 [label="age <= 41.5\ngini = 0.499\nsamples = 2141\nvalue = [1019, 1122, 0, 0, 0]\nclass = Classical", fillcolor="#f3fded"] ;
70 -> 82 ;
83 [label="gini = 0.494\nsamples = 562\nvalue = [250, 312, 0, 0, 0]\nclass = Classical", fillcolor="#e5fad8"] ;
82 -> 83 ;
84 [label="age <= 42.5\ngini = 0.5\nsamples = 1579\nvalue = [769, 810, 0, 0, 0]\nclass = Classical", fillcolor="#f8fef5"] ;
82 -> 84 ;
85 [label="gini = 0.5\nsamples = 503\nvalue = [255.0, 248.0, 0.0, 0.0, 0.0]\nclass = Acoustic", fillcolor="#fefcfa"] ;
84 -> 85 ;
86 [label="age <= 43.5\ngini = 0.499\nsamples = 1076\nvalue = [514, 562, 0, 0, 0]\nclass = Classical", fillcolor="#f4fdee"] ;
84 -> 86 ;
87 [label="gini = 0.499\nsamples = 549\nvalue = [260, 289, 0, 0, 0]\nclass = Classical", fillcolor="#f2fceb"] ;
86 -> 87 ;
88 [label="gini = 0.499\nsamples = 527\nvalue = [254, 273, 0, 0, 0]\nclass = Classical", fillcolor="#f6fdf1"] ;
86 -> 88 ;
89 [label="age <= 53.5\ngini = 0.5\nsamples = 10730\nvalue = [5332.0, 5398.0, 0.0, 0.0, 0.0]\nclass = Classical", fillcolor="#fdfffd"] ;
69 -> 89 ;
90 [label="age <= 47.5\ngini = 0.5\nsamples = 4751\nvalue = [2403, 2348, 0, 0, 0]\nclass = Acoustic", fillcolor="#fefcfa"] ;
89 -> 90 ;
91 [label="age <= 46.5\ngini = 0.5\nsamples = 1533\nvalue = [790, 743, 0, 0, 0]\nclass = Acoustic", fillcolor="#fdf8f3"] ;
90 -> 91 ;
92 [label="age <= 45.5\ngini = 0.5\nsamples = 1015\nvalue = [514, 501, 0, 0, 0]\nclass = Acoustic", fillcolor="#fefcfa"] ;
91 -> 92 ;
93 [label="gini = 0.5\nsamples = 514\nvalue = [259, 255, 0, 0, 0]\nclass = Acoustic", fillcolor="#fffdfc"] ;
92 -> 93 ;
94 [label="gini = 0.5\nsamples = 501\nvalue = [255, 246, 0, 0, 0]\nclass = Acoustic", fillcolor="#fefbf8"] ;
92 -> 94 ;
95 [label="gini = 0.498\nsamples = 518\nvalue = [276, 242, 0, 0, 0]\nclass = Acoustic", fillcolor="#fcefe7"] ;
91 -> 95 ;
96 [label="age <= 50.5\ngini = 0.5\nsamples = 3218\nvalue = [1613.0, 1605.0, 0.0, 0.0, 0.0]\nclass = Acoustic", fillcolor="#fffefe"] ;
90 -> 96 ;
97 [label="age <= 49.5\ngini = 0.5\nsamples = 1639\nvalue = [807, 832, 0, 0, 0]\nclass = Classical", fillcolor="#fbfef9"] ;
96 -> 97 ;
98 [label="age <= 48.5\ngini = 0.5\nsamples = 1105\nvalue = [552, 553, 0, 0, 0]\nclass = Classical", fillcolor="#ffffff"] ;
97 -> 98 ;
99 [label="gini = 0.5\nsamples = 548\nvalue = [268, 280, 0, 0, 0]\nclass = Classical", fillcolor="#f9fef7"] ;
98 -> 99 ;
100 [label="gini = 0.5\nsamples = 557\nvalue = [284, 273, 0, 0, 0]\nclass = Acoustic", fillcolor="#fefaf7"] ;
98 -> 100 ;
101 [label="gini = 0.499\nsamples = 534\nvalue = [255.0, 279.0, 0.0, 0.0, 0.0]\nclass = Classical", fillcolor="#f4fdee"] ;
97 -> 101 ;
102 [label="age <= 51.5\ngini = 0.5\nsamples = 1579\nvalue = [806, 773, 0, 0, 0]\nclass = Acoustic", fillcolor="#fefaf7"] ;
96 -> 102 ;
103 [label="gini = 0.499\nsamples = 543\nvalue = [283, 260, 0, 0, 0]\nclass = Acoustic", fillcolor="#fdf5ef"] ;
102 -> 103 ;
104 [label="age <= 52.5\ngini = 0.5\nsamples = 1036\nvalue = [523, 513, 0, 0, 0]\nclass = Acoustic", fillcolor="#fffdfb"] ;
102 -> 104 ;
105 [label="gini = 0.5\nsamples = 538\nvalue = [269, 269, 0, 0, 0]\nclass = Acoustic", fillcolor="#ffffff"] ;
104 -> 105 ;
106 [label="gini = 0.5\nsamples = 498\nvalue = [254, 244, 0, 0, 0]\nclass = Acoustic", fillcolor="#fefaf7"] ;
104 -> 106 ;
107 [label="age <= 56.5\ngini = 0.5\nsamples = 5979\nvalue = [2929, 3050, 0, 0, 0]\nclass = Classical", fillcolor="#fafef7"] ;
89 -> 107 ;
108 [label="age <= 55.5\ngini = 0.497\nsamples = 1673\nvalue = [775, 898, 0, 0, 0]\nclass = Classical", fillcolor="#edfbe4"] ;
107 -> 108 ;
109 [label="age <= 54.5\ngini = 0.497\nsamples = 1128\nvalue = [519, 609, 0, 0, 0]\nclass = Classical", fillcolor="#ebfbe2"] ;
108 -> 109 ;
110 [label="gini = 0.497\nsamples = 550\nvalue = [253, 297, 0, 0, 0]\nclass = Classical", fillcolor="#ebfbe2"] ;
109 -> 110 ;
111 [label="gini = 0.497\nsamples = 578\nvalue = [266.0, 312.0, 0.0, 0.0, 0.0]\nclass = Classical", fillcolor="#ecfbe2"] ;
109 -> 111 ;
112 [label="gini = 0.498\nsamples = 545\nvalue = [256, 289, 0, 0, 0]\nclass = Classical", fillcolor="#f0fce8"] ;
108 -> 112 ;
113 [label="age <= 57.5\ngini = 0.5\nsamples = 4306\nvalue = [2154, 2152, 0, 0, 0]\nclass = Acoustic", fillcolor="#ffffff"] ;
107 -> 113 ;
114 [label="gini = 0.499\nsamples = 562\nvalue = [296, 266, 0, 0, 0]\nclass = Acoustic", fillcolor="#fcf2eb"] ;
113 -> 114 ;
115 [label="age <= 61.5\ngini = 0.5\nsamples = 3744\nvalue = [1858, 1886, 0, 0, 0]\nclass = Classical", fillcolor="#fdfffc"] ;
113 -> 115 ;
116 [label="age <= 59.5\ngini = 0.5\nsamples = 2135\nvalue = [1041, 1094, 0, 0, 0]\nclass = Classical", fillcolor="#f9fef5"] ;
115 -> 116 ;
117 [label="age <= 58.5\ngini = 0.5\nsamples = 1059\nvalue = [530, 529, 0, 0, 0]\nclass = Acoustic", fillcolor="#ffffff"] ;
116 -> 117 ;
118 [label="gini = 0.5\nsamples = 541\nvalue = [264, 277, 0, 0, 0]\nclass = Classical", fillcolor="#f9fef6"] ;
117 -> 118 ;
119 [label="gini = 0.5\nsamples = 518\nvalue = [266, 252, 0, 0, 0]\nclass = Acoustic", fillcolor="#fef8f5"] ;
117 -> 119 ;
120 [label="age <= 60.5\ngini = 0.499\nsamples = 1076\nvalue = [511, 565, 0, 0, 0]\nclass = Classical", fillcolor="#f2fdec"] ;
116 -> 120 ;
121 [label="gini = 0.499\nsamples = 520\nvalue = [249, 271, 0, 0, 0]\nclass = Classical", fillcolor="#f4fdef"] ;
120 -> 121 ;
122 [label="gini = 0.498\nsamples = 556\nvalue = [262, 294, 0, 0, 0]\nclass = Classical", fillcolor="#f1fce9"] ;
120 -> 122 ;
123 [label="age <= 63.5\ngini = 0.5\nsamples = 1609\nvalue = [817.0, 792.0, 0.0, 0.0, 0.0]\nclass = Acoustic", fillcolor="#fefbf9"] ;
115 -> 123 ;
124 [label="age <= 62.5\ngini = 0.5\nsamples = 1034\nvalue = [521, 513, 0, 0, 0]\nclass = Acoustic", fillcolor="#fffdfc"] ;
123 -> 124 ;
125 [label="gini = 0.5\nsamples = 512\nvalue = [260, 252, 0, 0, 0]\nclass = Acoustic", fillcolor="#fefbf9"] ;
124 -> 125 ;
126 [label="gini = 0.5\nsamples = 522\nvalue = [261, 261, 0, 0, 0]\nclass = Acoustic", fillcolor="#ffffff"] ;
124 -> 126 ;
127 [label="gini = 0.5\nsamples = 575\nvalue = [296, 279, 0, 0, 0]\nclass = Acoustic", fillcolor="#fef8f4"] ;
123 -> 127 ;
128 [label="age <= 57.5\ngini = 0.5\nsamples = 15865\nvalue = [0.0, 7935.0, 0.0, 0.0, 7930.0]\nclass = Classical", fillcolor="#ffffff"] ;
68 -> 128 ;
129 [label="age <= 48.5\ngini = 0.5\nsamples = 12212\nvalue = [0, 6062, 0, 0, 6150]\nclass = Jazz", fillcolor="#fffcfe"] ;
128 -> 129 ;
130 [label="age <= 36.5\ngini = 0.5\nsamples = 7415\nvalue = [0.0, 3733.0, 0.0, 0.0, 3682.0]\nclass = Classical", fillcolor="#fdfffc"] ;
129 -> 130 ;
131 [label="age <= 35.5\ngini = 0.499\nsamples = 1043\nvalue = [0, 500, 0, 0, 543]\nclass = Jazz", fillcolor="#fdeffa"] ;
130 -> 131 ;
132 [label="gini = 0.5\nsamples = 536\nvalue = [0, 266, 0, 0, 270]\nclass = Jazz", fillcolor="#fffcfe"] ;
131 -> 132 ;
133 [label="gini = 0.497\nsamples = 507\nvalue = [0, 234, 0, 0, 273]\nclass = Jazz", fillcolor="#fbe3f6"] ;
131 -> 133 ;
134 [label="age <= 47.5\ngini = 0.5\nsamples = 6372\nvalue = [0, 3233, 0, 0, 3139]\nclass = Classical", fillcolor="#fbfef9"] ;
130 -> 134 ;
135 [label="age <= 44.5\ngini = 0.5\nsamples = 5821\nvalue = [0, 2939, 0, 0, 2882]\nclass = Classical", fillcolor="#fcfefb"] ;
134 -> 135 ;
136 [label="age <= 39.5\ngini = 0.5\nsamples = 4260\nvalue = [0, 2178, 0, 0, 2082]\nclass = Classical", fillcolor="#f9fef6"] ;
135 -> 136 ;
137 [label="age <= 38.5\ngini = 0.5\nsamples = 1613\nvalue = [0, 804, 0, 0, 809]\nclass = Jazz", fillcolor="#fffeff"] ;
136 -> 137 ;
138 [label="age <= 37.5\ngini = 0.5\nsamples = 1079\nvalue = [0, 549, 0, 0, 530]\nclass = Classical", fillcolor="#fafef8"] ;
137 -> 138 ;
139 [label="gini = 0.5\nsamples = 542\nvalue = [0, 270, 0, 0, 272]\nclass = Jazz", fillcolor="#fffeff"] ;
138 -> 139 ;
140 [label="gini = 0.499\nsamples = 537\nvalue = [0, 279, 0, 0, 258]\nclass = Classical", fillcolor="#f5fdf0"] ;
138 -> 140 ;
141 [label="gini = 0.499\nsamples = 534\nvalue = [0.0, 255.0, 0.0, 0.0, 279.0]\nclass = Jazz", fillcolor="#fdeefa"] ;
137 -> 141 ;
142 [label="age <= 41.5\ngini = 0.499\nsamples = 2647\nvalue = [0, 1374, 0, 0, 1273]\nclass = Classical", fillcolor="#f5fdf0"] ;
136 -> 142 ;
143 [label="age <= 40.5\ngini = 0.498\nsamples = 1078\nvalue = [0, 577, 0, 0, 501]\nclass = Classical", fillcolor="#eefce5"] ;
142 -> 143 ;
144 [label="gini = 0.496\nsamples = 540\nvalue = [0, 293, 0, 0, 247]\nclass = Classical", fillcolor="#eafbe0"] ;
143 -> 144 ;
145 [label="gini = 0.498\nsamples = 538\nvalue = [0, 284, 0, 0, 254]\nclass = Classical", fillcolor="#f1fcea"] ;
143 -> 145 ;
146 [label="age <= 42.5\ngini = 0.5\nsamples = 1569\nvalue = [0.0, 797.0, 0.0, 0.0, 772.0]\nclass = Classical", fillcolor="#fbfef9"] ;
142 -> 146 ;
147 [label="gini = 0.5\nsamples = 570\nvalue = [0, 279, 0, 0, 291]\nclass = Jazz", fillcolor="#fef7fc"] ;
146 -> 147 ;
148 [label="age <= 43.5\ngini = 0.499\nsamples = 999\nvalue = [0, 518, 0, 0, 481]\nclass = Classical", fillcolor="#f6fdf1"] ;
146 -> 148 ;
149 [label="gini = 0.5\nsamples = 508\nvalue = [0, 260, 0, 0, 248]\nclass = Classical", fillcolor="#f9fef6"] ;
148 -> 149 ;
150 [label="gini = 0.499\nsamples = 491\nvalue = [0, 258, 0, 0, 233]\nclass = Classical", fillcolor="#f2fcec"] ;
148 -> 150 ;
151 [label="age <= 45.5\ngini = 0.5\nsamples = 1561\nvalue = [0, 761, 0, 0, 800]\nclass = Jazz", fillcolor="#fef5fc"] ;
135 -> 151 ;
152 [label="gini = 0.498\nsamples = 491\nvalue = [0, 231, 0, 0, 260]\nclass = Jazz", fillcolor="#fce9f8"] ;
151 -> 152 ;
153 [label="age <= 46.5\ngini = 0.5\nsamples = 1070\nvalue = [0.0, 530.0, 0.0, 0.0, 540.0]\nclass = Jazz", fillcolor="#fffbfe"] ;
151 -> 153 ;
154 [label="gini = 0.5\nsamples = 526\nvalue = [0, 261, 0, 0, 265]\nclass = Jazz", fillcolor="#fffcfe"] ;
153 -> 154 ;
155 [label="gini = 0.5\nsamples = 544\nvalue = [0, 269, 0, 0, 275]\nclass = Jazz", fillcolor="#fefbfe"] ;
153 -> 155 ;
156 [label="gini = 0.498\nsamples = 551\nvalue = [0, 294, 0, 0, 257]\nclass = Classical", fillcolor="#eefce6"] ;
134 -> 156 ;
157 [label="age <= 52.5\ngini = 0.5\nsamples = 4797\nvalue = [0, 2329, 0, 0, 2468]\nclass = Jazz", fillcolor="#fef4fb"] ;
129 -> 157 ;
158 [label="age <= 50.5\ngini = 0.498\nsamples = 2152\nvalue = [0, 1005, 0, 0, 1147]\nclass = Jazz", fillcolor="#fce6f7"] ;
157 -> 158 ;
159 [label="age <= 49.5\ngini = 0.499\nsamples = 1054\nvalue = [0, 508, 0, 0, 546]\nclass = Jazz", fillcolor="#fdf1fb"] ;
158 -> 159 ;
160 [label="gini = 0.499\nsamples = 515\nvalue = [0, 248, 0, 0, 267]\nclass = Jazz", fillcolor="#fdf1fb"] ;
159 -> 160 ;
161 [label="gini = 0.499\nsamples = 539\nvalue = [0, 260, 0, 0, 279]\nclass = Jazz", fillcolor="#fdf2fb"] ;
159 -> 161 ;
162 [label="age <= 51.5\ngini = 0.496\nsamples = 1098\nvalue = [0, 497, 0, 0, 601]\nclass = Jazz", fillcolor="#fbddf4"] ;
158 -> 162 ;
163 [label="gini = 0.497\nsamples = 559\nvalue = [0, 257, 0, 0, 302]\nclass = Jazz", fillcolor="#fbe1f6"] ;
162 -> 163 ;
164 [label="gini = 0.494\nsamples = 539\nvalue = [0, 240, 0, 0, 299]\nclass = Jazz", fillcolor="#fad8f3"] ;
162 -> 164 ;
165 [label="age <= 54.5\ngini = 0.5\nsamples = 2645\nvalue = [0.0, 1324.0, 0.0, 0.0, 1321.0]\nclass = Classical", fillcolor="#ffffff"] ;
157 -> 165 ;
166 [label="age <= 53.5\ngini = 0.499\nsamples = 1069\nvalue = [0, 560, 0, 0, 509]\nclass = Classical", fillcolor="#f3fded"] ;
165 -> 166 ;
167 [label="gini = 0.498\nsamples = 534\nvalue = [0.0, 285.0, 0.0, 0.0, 249.0]\nclass = Classical", fillcolor="#eefce6"] ;
166 -> 167 ;
168 [label="gini = 0.5\nsamples = 535\nvalue = [0.0, 275.0, 0.0, 0.0, 260.0]\nclass = Classical", fillcolor="#f8fef4"] ;
166 -> 168 ;
169 [label="age <= 55.5\ngini = 0.5\nsamples = 1576\nvalue = [0.0, 764.0, 0.0, 0.0, 812.0]\nclass = Jazz", fillcolor="#fdf3fb"] ;
165 -> 169 ;
170 [label="gini = 0.5\nsamples = 522\nvalue = [0, 258, 0, 0, 264]\nclass = Jazz", fillcolor="#fefafe"] ;
169 -> 170 ;
171 [label="age <= 56.5\ngini = 0.499\nsamples = 1054\nvalue = [0, 506, 0, 0, 548]\nclass = Jazz", fillcolor="#fdf0fa"] ;
169 -> 171 ;
172 [label="gini = 0.499\nsamples = 503\nvalue = [0, 242, 0, 0, 261]\nclass = Jazz", fillcolor="#fdf1fa"] ;
171 -> 172 ;
173 [label="gini = 0.499\nsamples = 551\nvalue = [0.0, 264.0, 0.0, 0.0, 287.0]\nclass = Jazz", fillcolor="#fdeffa"] ;
171 -> 173 ;
174 [label="age <= 58.5\ngini = 0.5\nsamples = 3653\nvalue = [0, 1873, 0, 0, 1780]\nclass = Classical", fillcolor="#f8fef5"] ;
128 -> 174 ;
175 [label="gini = 0.497\nsamples = 520\nvalue = [0, 280, 0, 0, 240]\nclass = Classical", fillcolor="#ecfbe3"] ;
174 -> 175 ;
176 [label="age <= 61.5\ngini = 0.5\nsamples = 3133\nvalue = [0, 1593, 0, 0, 1540]\nclass = Classical", fillcolor="#fbfef8"] ;
174 -> 176 ;
177 [label="age <= 59.5\ngini = 0.5\nsamples = 1538\nvalue = [0, 776, 0, 0, 762]\nclass = Classical", fillcolor="#fdfffb"] ;
176 -> 177 ;
178 [label="gini = 0.5\nsamples = 527\nvalue = [0, 271, 0, 0, 256]\nclass = Classical", fillcolor="#f8fef4"] ;
177 -> 178 ;
179 [label="age <= 60.5\ngini = 0.5\nsamples = 1011\nvalue = [0, 505, 0, 0, 506]\nclass = Jazz", fillcolor="#ffffff"] ;
177 -> 179 ;
180 [label="gini = 0.5\nsamples = 502\nvalue = [0, 248, 0, 0, 254]\nclass = Jazz", fillcolor="#fefafe"] ;
179 -> 180 ;
181 [label="gini = 0.5\nsamples = 509\nvalue = [0, 257, 0, 0, 252]\nclass = Classical", fillcolor="#fcfefb"] ;
179 -> 181 ;
182 [label="age <= 62.5\ngini = 0.5\nsamples = 1595\nvalue = [0.0, 817.0, 0.0, 0.0, 778.0]\nclass = Classical", fillcolor="#f9fef6"] ;
176 -> 182 ;
183 [label="gini = 0.499\nsamples = 500\nvalue = [0, 258, 0, 0, 242]\nclass = Classical", fillcolor="#f7fdf3"] ;
182 -> 183 ;
184 [label="age <= 63.5\ngini = 0.5\nsamples = 1095\nvalue = [0, 559, 0, 0, 536]\nclass = Classical", fillcolor="#fafef7"] ;
182 -> 184 ;
185 [label="gini = 0.5\nsamples = 563\nvalue = [0, 286, 0, 0, 277]\nclass = Classical", fillcolor="#fbfef9"] ;
184 -> 185 ;
186 [label="gini = 0.5\nsamples = 532\nvalue = [0, 273, 0, 0, 259]\nclass = Classical", fillcolor="#f8fef5"] ;
184 -> 186 ;
}